FANN_FLO_2.1
num_layers=4
learning_rate=0.700000
connection_rate=1.000000
network_type=0
learning_momentum=0.000000
training_algorithm=2
train_error_function=1
train_stop_function=0
cascade_output_change_fraction=0.010000
quickprop_decay=-0.000100
quickprop_mu=1.750000
rprop_increase_factor=1.200000
rprop_decrease_factor=0.500000
rprop_delta_min=0.000000
rprop_delta_max=50.000000
rprop_delta_zero=0.100000
cascade_output_stagnation_epochs=12
cascade_candidate_change_fraction=0.010000
cascade_candidate_stagnation_epochs=12
cascade_max_out_epochs=150
cascade_max_cand_epochs=150
cascade_num_candidate_groups=2
bit_fail_limit=3.49999999999999977796e-01
cascade_candidate_limit=1.00000000000000000000e+03
cascade_weight_multiplier=4.00000000000000022204e-01
cascade_activation_functions_count=10
cascade_activation_functions=3 5 7 8 10 11 14 15 16 17 
cascade_activation_steepnesses_count=4
cascade_activation_steepnesses=2.50000000000000000000e-01 5.00000000000000000000e-01 7.50000000000000000000e-01 1.00000000000000000000e+00 
layer_sizes=5 5 4 2 
scale_included=0
neurons (num_inputs, activation_function, activation_steepness)=(0, 0, 0.00000000000000000000e+00) (0, 0, 0.00000000000000000000e+00) (0, 0, 0.00000000000000000000e+00) (0, 0, 0.00000000000000000000e+00) (0, 0, 0.00000000000000000000e+00) (5, 4, 5.00000000000000000000e-01) (5, 4, 5.00000000000000000000e-01) (5, 4, 5.00000000000000000000e-01) (5, 4, 5.00000000000000000000e-01) (0, 0, 0.00000000000000000000e+00) (5, 4, 5.00000000000000000000e-01) (5, 4, 5.00000000000000000000e-01) (5, 4, 5.00000000000000000000e-01) (0, 0, 0.00000000000000000000e+00) (4, 4, 5.00000000000000000000e-01) (0, 0, 0.00000000000000000000e+00) 
connections (connected_to_neuron, weight)=(0, -9.33389544023020789609e+00) (1, -1.89099470523911711295e-02) (2, -1.01377857032599688614e-01) (3, -9.32767812228188775148e-02) (4, 5.31410376524928725755e-03) (0, -7.16351145568547487130e+00) (1, 7.00269722190448584698e-02) (2, -9.36098098341391349209e-02) (3, 1.20662203375946838757e-02) (4, 9.83815803526452564709e-02) (0, -1.09772196733729963114e+01) (1, -9.16459318911080483838e-02) (2, -1.61298755673703209795e-03) (3, -7.26244567608620578136e-02) (4, 1.76703436144297655608e-02) (0, -1.07934115087168240876e+01) (1, 7.85654105964213728130e-02) (2, -2.75628216313837208495e-02) (3, -4.93245532910075029642e-02) (4, -4.73219499881070010394e-02) (5, -1.23573200496653490266e-01) (6, -2.42290826233843736848e-01) (7, -1.29565255435923509797e-01) (8, -2.10031348981095100648e-01) (9, -1.64247275087017724493e-01) (5, -3.22083130516372606600e-01) (6, -3.16352568604312822664e-01) (7, -2.02732726969085702562e-01) (8, -1.20609423059048842530e-01) (9, -3.03851783920101203851e-01) (5, -2.51651934032010526909e-01) (6, -3.15848617498445061180e-01) (7, -2.69392306600379438652e-01) (8, -2.30970332513198595148e-01) (9, -2.21556170386655232329e-01) (10, 1.39953150617019184132e+00) (11, 1.11250005850430677690e+00) (12, 1.15149355620698989888e+00) (13, 3.15625951636577362081e+00) 
