FANN_FLO_2.1
num_layers=4
learning_rate=0.700000
connection_rate=1.000000
network_type=0
learning_momentum=0.000000
training_algorithm=2
train_error_function=1
train_stop_function=0
cascade_output_change_fraction=0.010000
quickprop_decay=-0.000100
quickprop_mu=1.750000
rprop_increase_factor=1.200000
rprop_decrease_factor=0.500000
rprop_delta_min=0.000000
rprop_delta_max=50.000000
rprop_delta_zero=0.100000
cascade_output_stagnation_epochs=12
cascade_candidate_change_fraction=0.010000
cascade_candidate_stagnation_epochs=12
cascade_max_out_epochs=150
cascade_max_cand_epochs=150
cascade_num_candidate_groups=2
bit_fail_limit=3.49999999999999977796e-01
cascade_candidate_limit=1.00000000000000000000e+03
cascade_weight_multiplier=4.00000000000000022204e-01
cascade_activation_functions_count=10
cascade_activation_functions=3 5 7 8 10 11 14 15 16 17 
cascade_activation_steepnesses_count=4
cascade_activation_steepnesses=2.50000000000000000000e-01 5.00000000000000000000e-01 7.50000000000000000000e-01 1.00000000000000000000e+00 
layer_sizes=5 5 4 2 
scale_included=0
neurons (num_inputs, activation_function, activation_steepness)=(0, 0, 0.00000000000000000000e+00) (0, 0, 0.00000000000000000000e+00) (0, 0, 0.00000000000000000000e+00) (0, 0, 0.00000000000000000000e+00) (0, 0, 0.00000000000000000000e+00) (5, 4, 5.00000000000000000000e-01) (5, 4, 5.00000000000000000000e-01) (5, 4, 5.00000000000000000000e-01) (5, 4, 5.00000000000000000000e-01) (0, 0, 0.00000000000000000000e+00) (5, 4, 5.00000000000000000000e-01) (5, 4, 5.00000000000000000000e-01) (5, 4, 5.00000000000000000000e-01) (0, 0, 0.00000000000000000000e+00) (4, 4, 5.00000000000000000000e-01) (0, 0, 0.00000000000000000000e+00) 
connections (connected_to_neuron, weight)=(0, -8.58819529804163472875e+00) (1, -1.80477659564172755735e-02) (2, -8.75044019516768301070e-02) (3, -7.59028791807099673106e-02) (4, 5.74845131630200966572e-03) (0, -6.20369355151661494574e+00) (1, 7.11367925106693860249e-02) (2, -7.57556150680922663065e-02) (3, 3.44317626826191602873e-02) (4, 9.89407189112708751466e-02) (0, -1.03249540019389378642e+01) (1, -9.08917572943442331201e-02) (2, 1.05213216445753793282e-02) (3, -5.74265879414448676687e-02) (4, 1.80502903349151963552e-02) (0, -1.01603870222032064419e+01) (1, 7.92974128209655293453e-02) (2, -1.57892898657735307466e-02) (3, -3.45720597732243895006e-02) (4, -4.69531376501624228559e-02) (5, -1.23573200496653490266e-01) (6, -2.42290826233843736848e-01) (7, -1.29565255435923509797e-01) (8, -2.10031348981095100648e-01) (9, -2.39931958064275113740e-01) (5, -3.22083130516372606600e-01) (6, -3.16352568604312822664e-01) (7, -2.02732726969085702562e-01) (8, -1.20609423059048842530e-01) (9, -3.62857538558481573787e-01) (5, -2.51651934032010526909e-01) (6, -3.15848617498445061180e-01) (7, -2.69392306600379438652e-01) (8, -2.30970332513198595148e-01) (9, -2.83213293584486269783e-01) (10, 1.29728835238687456588e+00) (11, 1.01705888433546887129e+00) (12, 1.05190544132057572924e+00) (13, 2.93207902278033483157e+00) 
