FANN_FLO_2.1
num_layers=4
learning_rate=0.700000
connection_rate=1.000000
network_type=0
learning_momentum=0.000000
training_algorithm=2
train_error_function=1
train_stop_function=0
cascade_output_change_fraction=0.010000
quickprop_decay=-0.000100
quickprop_mu=1.750000
rprop_increase_factor=1.200000
rprop_decrease_factor=0.500000
rprop_delta_min=0.000000
rprop_delta_max=50.000000
rprop_delta_zero=0.100000
cascade_output_stagnation_epochs=12
cascade_candidate_change_fraction=0.010000
cascade_candidate_stagnation_epochs=12
cascade_max_out_epochs=150
cascade_max_cand_epochs=150
cascade_num_candidate_groups=2
bit_fail_limit=3.49999999999999977796e-01
cascade_candidate_limit=1.00000000000000000000e+03
cascade_weight_multiplier=4.00000000000000022204e-01
cascade_activation_functions_count=10
cascade_activation_functions=3 5 7 8 10 11 14 15 16 17 
cascade_activation_steepnesses_count=4
cascade_activation_steepnesses=2.50000000000000000000e-01 5.00000000000000000000e-01 7.50000000000000000000e-01 1.00000000000000000000e+00 
layer_sizes=5 5 4 2 
scale_included=0
neurons (num_inputs, activation_function, activation_steepness)=(0, 0, 0.00000000000000000000e+00) (0, 0, 0.00000000000000000000e+00) (0, 0, 0.00000000000000000000e+00) (0, 0, 0.00000000000000000000e+00) (0, 0, 0.00000000000000000000e+00) (5, 4, 5.00000000000000000000e-01) (5, 4, 5.00000000000000000000e-01) (5, 4, 5.00000000000000000000e-01) (5, 4, 5.00000000000000000000e-01) (0, 0, 0.00000000000000000000e+00) (5, 4, 5.00000000000000000000e-01) (5, 4, 5.00000000000000000000e-01) (5, 4, 5.00000000000000000000e-01) (0, 0, 0.00000000000000000000e+00) (4, 4, 5.00000000000000000000e-01) (0, 0, 0.00000000000000000000e+00) 
connections (connected_to_neuron, weight)=(0, 1.00610129939057518778e-01) (1, -5.58310233456069116009e-02) (2, -8.31934328440234044377e-02) (3, 8.99229581408397825726e+03) (4, -2.25235814916122933926e-02) (0, -1.63453588944502792302e-01) (1, -3.99851877960880688900e-02) (2, -7.34090282898075680018e-02) (3, -6.85774721911958295095e+03) (4, 3.23439252132621049562e-02) (0, 5.98671368968072964423e-02) (1, -7.28079119554693177108e-02) (2, -4.46565255724287110684e-02) (3, -2.92575327213272248628e+03) (4, 8.87049740514567336414e-02) (0, -7.30269347596509410536e-02) (1, -8.07154661937318010367e-03) (2, -3.42114374285311037549e-03) (3, 1.78234666342704213093e+03) (4, 5.12940440963974217392e-02) (5, 7.39028750093252556619e-02) (6, 5.06595745682716369629e-02) (7, 3.55226024985313415527e-02) (8, 2.56109602625413761146e-02) (9, 7.14892147214681999978e-02) (5, 9.36907073931374234643e-02) (6, -4.99092750251293182373e-02) (7, -2.51552164554595947266e-02) (8, 1.93216248932983267195e-02) (9, -4.42515546007476237578e-02) (5, -4.50144083399893757402e-02) (6, -9.48742330074310302734e-02) (7, 4.88488450646400451660e-02) (8, 5.41414243369149096596e-04) (9, 9.84823918740628245772e-02) (10, -1.36832446723250400478e-01) (11, -2.43596161687428508502e-01) (12, -1.44124364499770118986e-01) (13, -3.09733300216076146150e-01) 
