FANN_FLO_2.1
num_layers=4
learning_rate=0.700000
connection_rate=1.000000
network_type=0
learning_momentum=0.000000
training_algorithm=2
train_error_function=1
train_stop_function=0
cascade_output_change_fraction=0.010000
quickprop_decay=-0.000100
quickprop_mu=1.750000
rprop_increase_factor=1.200000
rprop_decrease_factor=0.500000
rprop_delta_min=0.000000
rprop_delta_max=50.000000
rprop_delta_zero=0.100000
cascade_output_stagnation_epochs=12
cascade_candidate_change_fraction=0.010000
cascade_candidate_stagnation_epochs=12
cascade_max_out_epochs=150
cascade_max_cand_epochs=150
cascade_num_candidate_groups=2
bit_fail_limit=3.49999999999999977796e-01
cascade_candidate_limit=1.00000000000000000000e+03
cascade_weight_multiplier=4.00000000000000022204e-01
cascade_activation_functions_count=10
cascade_activation_functions=3 5 7 8 10 11 14 15 16 17 
cascade_activation_steepnesses_count=4
cascade_activation_steepnesses=2.50000000000000000000e-01 5.00000000000000000000e-01 7.50000000000000000000e-01 1.00000000000000000000e+00 
layer_sizes=5 5 4 2 
scale_included=0
neurons (num_inputs, activation_function, activation_steepness)=(0, 0, 0.00000000000000000000e+00) (0, 0, 0.00000000000000000000e+00) (0, 0, 0.00000000000000000000e+00) (0, 0, 0.00000000000000000000e+00) (0, 0, 0.00000000000000000000e+00) (5, 4, 5.00000000000000000000e-01) (5, 4, 5.00000000000000000000e-01) (5, 4, 5.00000000000000000000e-01) (5, 4, 5.00000000000000000000e-01) (0, 0, 0.00000000000000000000e+00) (5, 4, 5.00000000000000000000e-01) (5, 4, 5.00000000000000000000e-01) (5, 4, 5.00000000000000000000e-01) (0, 0, 0.00000000000000000000e+00) (4, 4, 5.00000000000000000000e-01) (0, 0, 0.00000000000000000000e+00) 
connections (connected_to_neuron, weight)=(0, -1.92150545024593166765e-01) (1, 5.43713656482303700490e-02) (2, -8.87115784630978232439e-02) (3, -2.51239665585912625829e+04) (4, -7.52151248372156522315e-02) (0, -1.16626053075665025993e+00) (1, -2.71961068125908464466e-02) (2, 3.43967080020616405855e-02) (3, -1.32465281100858381251e+05) (4, 3.42587878282179679121e-03) (0, 8.39401656263232820443e-01) (1, 3.51743085838800671750e-03) (2, 4.92343835560558884534e-03) (3, 9.96896397019530268153e+04) (4, -3.84842722442598206278e-02) (0, -1.16198643370652932028e+00) (1, 5.87886080392571799824e-02) (2, -4.09903455836270816381e-02) (3, -1.38101071526411862578e+05) (4, 9.27069059063667516574e-02) (5, -6.84270479893408500871e-02) (6, 5.24828508496284484863e-02) (7, 7.90766403079032897949e-02) (8, -1.31386065101347648820e-02) (9, 7.50073214408981669976e-02) (5, -4.98792981076957436803e-02) (6, -2.21319645643234252930e-02) (7, 2.80142650008201599121e-02) (8, -3.25071593094588967565e-02) (9, -7.56783126353033908096e-02) (5, 7.13485675608892533361e-02) (6, -9.74780097603797912598e-02) (7, 8.71024951338768005371e-02) (8, -1.93906103017138509159e-03) (9, 6.79797648367782836321e-02) (10, 1.54998599352331778434e+00) (11, 1.45519807755790031578e+00) (12, 1.56465172316567646682e+00) (13, 3.14798754639715427928e+00) 
