FANN_FLO_2.1
num_layers=4
learning_rate=0.700000
connection_rate=1.000000
network_type=0
learning_momentum=0.000000
training_algorithm=2
train_error_function=1
train_stop_function=0
cascade_output_change_fraction=0.010000
quickprop_decay=-0.000100
quickprop_mu=1.750000
rprop_increase_factor=1.200000
rprop_decrease_factor=0.500000
rprop_delta_min=0.000000
rprop_delta_max=50.000000
rprop_delta_zero=0.100000
cascade_output_stagnation_epochs=12
cascade_candidate_change_fraction=0.010000
cascade_candidate_stagnation_epochs=12
cascade_max_out_epochs=150
cascade_max_cand_epochs=150
cascade_num_candidate_groups=2
bit_fail_limit=3.49999999999999977796e-01
cascade_candidate_limit=1.00000000000000000000e+03
cascade_weight_multiplier=4.00000000000000022204e-01
cascade_activation_functions_count=10
cascade_activation_functions=3 5 7 8 10 11 14 15 16 17 
cascade_activation_steepnesses_count=4
cascade_activation_steepnesses=2.50000000000000000000e-01 5.00000000000000000000e-01 7.50000000000000000000e-01 1.00000000000000000000e+00 
layer_sizes=4 5 4 2 
scale_included=0
neurons (num_inputs, activation_function, activation_steepness)=(0, 0, 0.00000000000000000000e+00) (0, 0, 0.00000000000000000000e+00) (0, 0, 0.00000000000000000000e+00) (0, 0, 0.00000000000000000000e+00) (4, 4, 5.00000000000000000000e-01) (4, 4, 5.00000000000000000000e-01) (4, 4, 5.00000000000000000000e-01) (4, 4, 5.00000000000000000000e-01) (0, 0, 0.00000000000000000000e+00) (5, 4, 5.00000000000000000000e-01) (5, 4, 5.00000000000000000000e-01) (5, 4, 5.00000000000000000000e-01) (0, 0, 0.00000000000000000000e+00) (4, 4, 5.00000000000000000000e-01) (0, 0, 0.00000000000000000000e+00) 
connections (connected_to_neuron, weight)=(0, -5.83282291478273151597e-01) (1, -8.66646579348026718792e-02) (2, 4.15749308196286943007e-02) (3, 3.70530217548031767794e-02) (0, -5.24250605348410420037e-02) (1, 6.37756337683317714449e-02) (2, -8.22588782961680975436e-02) (3, 4.77054990230296391274e-03) (0, 1.22422415766546466287e+00) (1, 1.89993668061304091244e-02) (2, 9.34355835634996523265e-03) (3, 6.84754467444984027402e-02) (0, -7.56651995785620479218e-01) (1, 8.57120913579692417228e-02) (2, -2.27313472624816395595e-02) (3, -2.62775004829278666096e-02) (4, 1.18844345017009356269e-01) (5, -7.66179878199371444669e-02) (6, 4.03627993971105603066e-01) (7, 9.48064637998551618114e-02) (8, 3.26427135443949634208e-01) (4, -6.34128997980899639098e-02) (5, 2.32956420537294671413e-02) (6, 4.93942141659990729963e-01) (7, 6.43006369361305285537e-02) (8, 2.98958204577996100593e-01) (4, 3.14223958005808087779e-02) (5, 2.90665823265658096464e-02) (6, 3.46924066260794417005e-01) (7, 1.63266994062700801504e-02) (8, 3.04942593500961423025e-01) (9, 1.92839548628798063135e+00) (10, 1.97653542663740289242e+00) (11, 1.87110539249226004443e+00) (12, 3.70426103467825873494e+00) 
