FANN_FLO_2.1
num_layers=4
learning_rate=0.700000
connection_rate=1.000000
network_type=0
learning_momentum=0.000000
training_algorithm=2
train_error_function=1
train_stop_function=0
cascade_output_change_fraction=0.010000
quickprop_decay=-0.000100
quickprop_mu=1.750000
rprop_increase_factor=1.200000
rprop_decrease_factor=0.500000
rprop_delta_min=0.000000
rprop_delta_max=50.000000
rprop_delta_zero=0.100000
cascade_output_stagnation_epochs=12
cascade_candidate_change_fraction=0.010000
cascade_candidate_stagnation_epochs=12
cascade_max_out_epochs=150
cascade_max_cand_epochs=150
cascade_num_candidate_groups=2
bit_fail_limit=3.49999999999999977796e-01
cascade_candidate_limit=1.00000000000000000000e+03
cascade_weight_multiplier=4.00000000000000022204e-01
cascade_activation_functions_count=10
cascade_activation_functions=3 5 7 8 10 11 14 15 16 17 
cascade_activation_steepnesses_count=4
cascade_activation_steepnesses=2.50000000000000000000e-01 5.00000000000000000000e-01 7.50000000000000000000e-01 1.00000000000000000000e+00 
layer_sizes=4 5 4 2 
scale_included=0
neurons (num_inputs, activation_function, activation_steepness)=(0, 0, 0.00000000000000000000e+00) (0, 0, 0.00000000000000000000e+00) (0, 0, 0.00000000000000000000e+00) (0, 0, 0.00000000000000000000e+00) (4, 4, 5.00000000000000000000e-01) (4, 4, 5.00000000000000000000e-01) (4, 4, 5.00000000000000000000e-01) (4, 4, 5.00000000000000000000e-01) (0, 0, 0.00000000000000000000e+00) (5, 4, 5.00000000000000000000e-01) (5, 4, 5.00000000000000000000e-01) (5, 4, 5.00000000000000000000e-01) (0, 0, 0.00000000000000000000e+00) (4, 4, 5.00000000000000000000e-01) (0, 0, 0.00000000000000000000e+00) 
connections (connected_to_neuron, weight)=(0, -7.66091634692802198048e-02) (1, -9.89147094658581610416e-02) (2, -6.24937117375562890126e-03) (3, 6.78995301593352112990e-02) (0, 5.32402657070373160064e-03) (1, -5.31985308911517035951e-04) (2, 2.16583809773612237168e-03) (3, 9.80123946624019137808e-02) (0, -3.93606034467571738733e-02) (1, 7.76390257166693492641e-02) (2, 5.37375933950446707521e-02) (3, 7.65029501609884587943e-02) (0, -8.04332063168970647256e-04) (1, -7.12617846410952744153e-04) (2, 4.49058846445683501614e-02) (3, -2.44714525529909111834e-02) (4, 2.82037917291790563024e-02) (5, 1.17126719476816250343e-02) (6, 4.73099533064026689377e-02) (7, 8.39439360400096035164e-03) (8, -1.33670979753329477457e-04) (4, -3.39055427001772047291e-03) (5, -1.83511294791899801093e-02) (6, -1.08603005706567556921e-01) (7, -6.05223395671650454819e-02) (8, -4.72022245471052231958e-02) (4, -7.92332466930379952785e-02) (5, -5.24106663828956959028e-02) (6, -1.07431772735967767662e-01) (7, -9.61882442463623740792e-03) (8, 5.70851362769035503009e-02) (9, 1.51900771424191471937e+00) (10, 1.38858759044136892413e+00) (11, 1.43750040154715152951e+00) (12, 2.78800000680667592334e+00) 
