FANN_FLO_2.1
num_layers=4
learning_rate=0.700000
connection_rate=1.000000
network_type=0
learning_momentum=0.000000
training_algorithm=2
train_error_function=1
train_stop_function=0
cascade_output_change_fraction=0.010000
quickprop_decay=-0.000100
quickprop_mu=1.750000
rprop_increase_factor=1.200000
rprop_decrease_factor=0.500000
rprop_delta_min=0.000000
rprop_delta_max=50.000000
rprop_delta_zero=0.100000
cascade_output_stagnation_epochs=12
cascade_candidate_change_fraction=0.010000
cascade_candidate_stagnation_epochs=12
cascade_max_out_epochs=150
cascade_max_cand_epochs=150
cascade_num_candidate_groups=2
bit_fail_limit=3.49999999999999977796e-01
cascade_candidate_limit=1.00000000000000000000e+03
cascade_weight_multiplier=4.00000000000000022204e-01
cascade_activation_functions_count=10
cascade_activation_functions=3 5 7 8 10 11 14 15 16 17 
cascade_activation_steepnesses_count=4
cascade_activation_steepnesses=2.50000000000000000000e-01 5.00000000000000000000e-01 7.50000000000000000000e-01 1.00000000000000000000e+00 
layer_sizes=5 5 4 2 
scale_included=0
neurons (num_inputs, activation_function, activation_steepness)=(0, 0, 0.00000000000000000000e+00) (0, 0, 0.00000000000000000000e+00) (0, 0, 0.00000000000000000000e+00) (0, 0, 0.00000000000000000000e+00) (0, 0, 0.00000000000000000000e+00) (5, 4, 5.00000000000000000000e-01) (5, 4, 5.00000000000000000000e-01) (5, 4, 5.00000000000000000000e-01) (5, 4, 5.00000000000000000000e-01) (0, 0, 0.00000000000000000000e+00) (5, 4, 5.00000000000000000000e-01) (5, 4, 5.00000000000000000000e-01) (5, 4, 5.00000000000000000000e-01) (0, 0, 0.00000000000000000000e+00) (4, 4, 5.00000000000000000000e-01) (0, 0, 0.00000000000000000000e+00) 
connections (connected_to_neuron, weight)=(0, 3.63758123021242704698e-02) (1, 8.51895294832964028453e-02) (2, -1.05800289944343022669e-02) (3, -8.20377330073546046085e-02) (4, -7.05966942262868796254e-02) (0, 7.57523829601624704155e-02) (1, 9.41309425061124943612e-02) (2, 3.47530305587108040433e-02) (3, -8.46182964238387652633e-02) (4, 7.58194270556348942636e-02) (0, 5.31019770171929916813e-02) (1, -5.69138415310643519529e-02) (2, -7.51757646220906246282e-03) (3, -4.67598518882687760878e-02) (4, 6.32473639991022740237e-02) (0, -2.53563107089481293288e-02) (1, 3.37518060974443603883e-02) (2, 3.95670298284631159064e-03) (3, 8.63734499500776603531e-02) (4, -6.12356496580278228392e-02) (5, -2.43658375128546871025e-02) (6, -4.44025796040335846149e-02) (7, -1.94115453803931845012e-03) (8, 2.06597596406936645508e-02) (9, 5.51376540080269622601e-02) (5, -1.20572231718494349284e-01) (6, -4.48528304781455333661e-02) (7, -2.87957489575881298016e-02) (8, -9.30313840508460998535e-02) (9, -4.30953502740401561688e-02) (5, -7.56947204603294482306e-02) (6, -6.77919268740753283575e-02) (7, -4.55259785188774218634e-02) (8, 2.77731493115425109863e-02) (9, -6.59455463422874560431e-02) (10, 1.44069077788849875255e+00) (11, 1.41487216466192311515e+00) (12, 1.38216821455199556645e+00) (13, 3.02019670135321494087e+00) 
