FANN_FLO_2.1
num_layers=4
learning_rate=0.700000
connection_rate=1.000000
network_type=0
learning_momentum=0.000000
training_algorithm=2
train_error_function=1
train_stop_function=0
cascade_output_change_fraction=0.010000
quickprop_decay=-0.000100
quickprop_mu=1.750000
rprop_increase_factor=1.200000
rprop_decrease_factor=0.500000
rprop_delta_min=0.000000
rprop_delta_max=50.000000
rprop_delta_zero=0.100000
cascade_output_stagnation_epochs=12
cascade_candidate_change_fraction=0.010000
cascade_candidate_stagnation_epochs=12
cascade_max_out_epochs=150
cascade_max_cand_epochs=150
cascade_num_candidate_groups=2
bit_fail_limit=3.49999999999999977796e-01
cascade_candidate_limit=1.00000000000000000000e+03
cascade_weight_multiplier=4.00000000000000022204e-01
cascade_activation_functions_count=10
cascade_activation_functions=3 5 7 8 10 11 14 15 16 17 
cascade_activation_steepnesses_count=4
cascade_activation_steepnesses=2.50000000000000000000e-01 5.00000000000000000000e-01 7.50000000000000000000e-01 1.00000000000000000000e+00 
layer_sizes=5 5 4 2 
scale_included=0
neurons (num_inputs, activation_function, activation_steepness)=(0, 0, 0.00000000000000000000e+00) (0, 0, 0.00000000000000000000e+00) (0, 0, 0.00000000000000000000e+00) (0, 0, 0.00000000000000000000e+00) (0, 0, 0.00000000000000000000e+00) (5, 4, 5.00000000000000000000e-01) (5, 4, 5.00000000000000000000e-01) (5, 4, 5.00000000000000000000e-01) (5, 4, 5.00000000000000000000e-01) (0, 0, 0.00000000000000000000e+00) (5, 4, 5.00000000000000000000e-01) (5, 4, 5.00000000000000000000e-01) (5, 4, 5.00000000000000000000e-01) (0, 0, 0.00000000000000000000e+00) (4, 4, 5.00000000000000000000e-01) (0, 0, 0.00000000000000000000e+00) 
connections (connected_to_neuron, weight)=(0, -6.95364087295252675247e-02) (1, -1.20028801736986618504e-02) (2, 6.85918401202320893173e-02) (3, 6.34948666780949244615e-02) (4, -7.66494296965753996176e-02) (0, -1.57611559503134518456e-01) (1, -8.87280258265962795683e-02) (2, -2.83987066331969628674e-02) (3, 3.04629470792186392292e-02) (4, -7.35525268045892910429e-02) (0, 7.63521201679247391025e-02) (1, 4.32053170305044531574e-02) (2, -1.06548523376316130185e-02) (3, 4.35555024009984734223e-02) (4, -8.07648711699693322430e-02) (0, 5.97373871387933130794e-02) (1, 6.12933810085675989665e-02) (2, -8.91292094286935399072e-02) (3, -8.20866513005135550740e-03) (4, -7.38414053588487828694e-02) (5, 7.10794250784397840803e-02) (6, 5.78951525093294033786e-02) (7, -2.34838854250038420179e-01) (8, -1.96188465850583443340e-01) (9, -1.22604321416939054945e-01) (5, 2.28680279422402432665e-02) (6, 5.44901054762822883992e-02) (7, 1.42191364016016202898e-02) (8, 4.30892367367456119442e-02) (9, 5.77860935177286344500e-02) (5, -1.26138673050645439000e-01) (6, -1.87848568681406591363e-02) (7, -1.05831124176127111536e-01) (8, -1.35821402502635441012e-01) (9, -7.97855186358515378053e-02) (10, -1.19667521955348954421e+00) (11, -1.57717536018762660710e+00) (12, -1.31317964875635784239e+00) (13, -2.77820147827498820092e+00) 
