FANN_FLO_2.1
num_layers=4
learning_rate=0.700000
connection_rate=1.000000
network_type=0
learning_momentum=0.000000
training_algorithm=2
train_error_function=1
train_stop_function=0
cascade_output_change_fraction=0.010000
quickprop_decay=-0.000100
quickprop_mu=1.750000
rprop_increase_factor=1.200000
rprop_decrease_factor=0.500000
rprop_delta_min=0.000000
rprop_delta_max=50.000000
rprop_delta_zero=0.100000
cascade_output_stagnation_epochs=12
cascade_candidate_change_fraction=0.010000
cascade_candidate_stagnation_epochs=12
cascade_max_out_epochs=150
cascade_max_cand_epochs=150
cascade_num_candidate_groups=2
bit_fail_limit=3.49999999999999977796e-01
cascade_candidate_limit=1.00000000000000000000e+03
cascade_weight_multiplier=4.00000000000000022204e-01
cascade_activation_functions_count=10
cascade_activation_functions=3 5 7 8 10 11 14 15 16 17 
cascade_activation_steepnesses_count=4
cascade_activation_steepnesses=2.50000000000000000000e-01 5.00000000000000000000e-01 7.50000000000000000000e-01 1.00000000000000000000e+00 
layer_sizes=4 5 4 2 
scale_included=0
neurons (num_inputs, activation_function, activation_steepness)=(0, 0, 0.00000000000000000000e+00) (0, 0, 0.00000000000000000000e+00) (0, 0, 0.00000000000000000000e+00) (0, 0, 0.00000000000000000000e+00) (4, 4, 5.00000000000000000000e-01) (4, 4, 5.00000000000000000000e-01) (4, 4, 5.00000000000000000000e-01) (4, 4, 5.00000000000000000000e-01) (0, 0, 0.00000000000000000000e+00) (5, 4, 5.00000000000000000000e-01) (5, 4, 5.00000000000000000000e-01) (5, 4, 5.00000000000000000000e-01) (0, 0, 0.00000000000000000000e+00) (4, 4, 5.00000000000000000000e-01) (0, 0, 0.00000000000000000000e+00) 
connections (connected_to_neuron, weight)=(0, -5.22438306000031493781e-02) (1, -8.64797899743317416421e-02) (2, 4.54131547583325884121e-02) (3, 3.68801939035674208878e-02) (0, -1.00169083628568272859e-01) (1, 6.37231239128489557189e-02) (2, -8.17900784872778591206e-02) (3, 4.97300295594585353015e-03) (0, -5.89933564844214858303e-02) (1, 1.58707109731833530264e-02) (2, -5.79484902795260256592e-02) (3, 6.30035942838298029800e-02) (0, -6.46171447466685200389e-02) (1, 8.60288096579033823019e-02) (2, -1.87409658337727817734e-02) (3, -2.66875821795493246846e-02) (4, 1.19377398480068036557e-01) (5, -8.08874890208244323730e-02) (6, -3.09188842709874310566e-02) (7, 9.48288366198539733887e-02) (8, 5.60952355336763186511e-02) (4, -6.24749435216987308861e-02) (5, 1.89975500106811523438e-02) (6, 5.12877563989296014757e-02) (7, 6.47016838192939758301e-02) (8, 2.40116575224720019133e-02) (4, 3.27207597604074543196e-02) (5, 2.48537287116050720215e-02) (6, -7.57866587689065840383e-02) (7, 1.71126276254653930664e-02) (8, 4.18100026973063434999e-02) (9, 1.52239606513051528580e+00) (10, 1.55236683887860626996e+00) (11, 1.48111369282258431568e+00) (12, 2.95595011353509651286e+00) 
